digraph Tree {
node [shape=box, style="filled, rounded", color="black", fontname="helvetica"] ;
edge [fontname="helvetica"] ;
0 [label="Rank <= 142.5\nsquared_error = 0.581\nsamples = 13278\nvalue = [[0.533]\n[0.262]\n[0.048]\n[0.146]\n[0.076]]", fillcolor="#e6853f"] ;
1 [label="Rank <= 23.5\n14.708\n117\n[[11.609]\n[5.669]\n[1.079]\n[3.378]\n[1.482]]", fillcolor="#f8dbc6"] ;
0 -> 1 [labeldistance=2.5, labelangle=45, headlabel="True"] ;
2 [label="Rank <= 10.5\n20.639\n17\n[[25.328]\n[13.604]\n[2.202]\n[6.119]\n[3.402]]", fillcolor="#ffffff"] ;
1 -> 2 ;
3 [label="Year <= 1992.5\n16.039\n7\n[[31.546]\n[19.264]\n[1.556]\n[6.09]\n[4.634]]", fillcolor="#f9e3d3"] ;
2 -> 3 ;
4 [label="(...)", fillcolor="#C0C0C0"] ;
3 -> 4 ;
9 [label="(...)", fillcolor="#C0C0C0"] ;
3 -> 9 ;
16 [label="Year <= 2004.5\n6.571\n10\n[[20.976]\n[9.641]\n[2.655]\n[6.139]\n[2.54]]", fillcolor="#eda978"] ;
2 -> 16 ;
17 [label="(...)", fillcolor="#C0C0C0"] ;
16 -> 17 ;
24 [label="(...)", fillcolor="#C0C0C0"] ;
16 -> 24 ;
35 [label="Rank <= 63.5\n3.212\n100\n[[9.276]\n[4.321]\n[0.889]\n[2.912]\n[1.156]]", fillcolor="#e99558"] ;
1 -> 35 ;
36 [label="Rank <= 39.5\n2.526\n34\n[[12.763]\n[5.891]\n[1.312]\n[3.832]\n[1.73]]", fillcolor="#e89051"] ;
35 -> 36 ;
37 [label="(...)", fillcolor="#C0C0C0"] ;
36 -> 37 ;
64 [label="(...)", fillcolor="#C0C0C0"] ;
36 -> 64 ;
103 [label="Publisher_Electronic Arts <= 0.5\n1.071\n66\n[[7.48]\n[3.512]\n[0.67]\n[2.438]\n[0.86]]", fillcolor="#e68843"] ;
35 -> 103 ;
104 [label="(...)", fillcolor="#C0C0C0"] ;
103 -> 104 ;
217 [label="(...)", fillcolor="#C0C0C0"] ;
103 -> 217 ;
234 [label="Rank <= 1479.5\n0.159\n13161\n[[0.434]\n[0.214]\n[0.039]\n[0.117]\n[0.064]]", fillcolor="#e5823b"] ;
0 -> 234 [labeldistance=2.5, labelangle=-45, headlabel="False"] ;
235 [label="Rank <= 490.5\n0.474\n1077\n[[2.416]\n[1.18]\n[0.23]\n[0.71]\n[0.297]]", fillcolor="#e6843e"] ;
234 -> 235 ;
236 [label="Rank <= 267.0\n0.533\n263\n[[4.042]\n[1.86]\n[0.394]\n[1.261]\n[0.527]]", fillcolor="#e6843e"] ;
235 -> 236 ;
237 [label="(...)", fillcolor="#C0C0C0"] ;
236 -> 237 ;
420 [label="(...)", fillcolor="#C0C0C0"] ;
236 -> 420 ;
761 [label="Rank <= 844.5\n0.156\n814\n[[1.891]\n[0.96]\n[0.177]\n[0.532]\n[0.222]]", fillcolor="#e5823a"] ;
235 -> 761 ;
762 [label="(...)", fillcolor="#C0C0C0"] ;
761 -> 762 ;
1329 [label="(...)", fillcolor="#C0C0C0"] ;
761 -> 1329 ;
2388 [label="Rank <= 4432.5\n0.028\n12084\n[[0.258]\n[0.128]\n[0.022]\n[0.064]\n[0.043]]", fillcolor="#e58139"] ;
234 -> 2388 ;
2389 [label="Rank <= 2532.5\n0.039\n2349\n[[0.757]\n[0.378]\n[0.071]\n[0.21]\n[0.098]]", fillcolor="#e58139"] ;
2388 -> 2389 ;
2390 [label="(...)", fillcolor="#C0C0C0"] ;
2389 -> 2390 ;
4037 [label="(...)", fillcolor="#C0C0C0"] ;
2389 -> 4037 ;
6810 [label="Rank <= 8020.5\n0.005\n9735\n[[0.137]\n[0.068]\n[0.01]\n[0.029]\n[0.03]]", fillcolor="#e58139"] ;
2388 -> 6810 ;
6811 [label="(...)", fillcolor="#C0C0C0"] ;
6810 -> 6811 ;
11184 [label="(...)", fillcolor="#C0C0C0"] ;
6810 -> 11184 ;
}