digraph Tree {
node [shape=box, style="filled, rounded", color="black", fontname="helvetica"] ;
edge [fontname="helvetica"] ;
0 [label="Rank <= 142.5\nsquared_error = 0.581\nsamples = 13278\nvalue = [[0.533]\n[0.262]\n[0.048]\n[0.146]\n[0.076]]", fillcolor="#e6853f"] ;
1 [label="Rank <= 23.5\n14.708\n117\n[[11.609]\n[5.669]\n[1.079]\n[3.378]\n[1.482]]", fillcolor="#f8dbc6"] ;
0 -> 1 [labeldistance=2.5, labelangle=45, headlabel="True"] ;
2 [label="Rank <= 10.5\n20.639\n17\n[[25.328]\n[13.604]\n[2.202]\n[6.119]\n[3.402]]", fillcolor="#ffffff"] ;
1 -> 2 ;
3 [label="Year <= 1992.5\n16.039\n7\n[[31.546]\n[19.264]\n[1.556]\n[6.09]\n[4.634]]", fillcolor="#f9e3d3"] ;
2 -> 3 ;
4 [label="Genre_Platform <= 0.5\n8.377\n3\n[[32.937]\n[26.403]\n[0.607]\n[2.157]\n[3.77]]", fillcolor="#f0b489"] ;
3 -> 4 ;
5 [label="Platform_NES <= 0.5\n1.795\n2\n[[29.285]\n[25.065]\n[0.525]\n[1.445]\n[2.25]]", fillcolor="#e78c4a"] ;
4 -> 5 ;
6 [label="(...)", fillcolor="#C0C0C0"] ;
5 -> 6 ;
7 [label="(...)", fillcolor="#C0C0C0"] ;
5 -> 7 ;
8 [label="0.0\n1\n[[40.24]\n[29.08]\n[0.77]\n[3.58]\n[6.81]]", fillcolor="#e58139"] ;
4 -> 8 ;
9 [label="Platform_GB <= 0.5\n3.405\n4\n[[30.502]\n[13.91]\n[2.268]\n[9.04]\n[5.283]]", fillcolor="#e9965a"] ;
3 -> 9 ;
10 [label="Genre_Sports <= 0.5\n1.542\n3\n[[30.213]\n[14.79]\n[2.69]\n[9.09]\n[3.637]]", fillcolor="#e78a48"] ;
9 -> 10 ;
11 [label="(...)", fillcolor="#C0C0C0"] ;
10 -> 11 ;
14 [label="(...)", fillcolor="#C0C0C0"] ;
10 -> 14 ;
15 [label="-0.0\n1\n[[31.37]\n[11.27]\n[1.0]\n[8.89]\n[10.22]]", fillcolor="#e58139"] ;
9 -> 15 ;
16 [label="Year <= 2004.5\n6.571\n10\n[[20.976]\n[9.641]\n[2.655]\n[6.139]\n[2.54]]", fillcolor="#eda978"] ;
2 -> 16 ;
17 [label="Genre_Action <= 0.5\n5.454\n4\n[[19.21]\n[10.645]\n[3.0]\n[2.575]\n[2.992]]", fillcolor="#eca26d"] ;
16 -> 17 ;
18 [label="Platform_SNES <= 0.5\n0.805\n3\n[[18.677]\n[11.05]\n[0.477]\n[3.3]\n[3.853]]", fillcolor="#e68641"] ;
17 -> 18 ;
19 [label="(...)", fillcolor="#C0C0C0"] ;
18 -> 19 ;
22 [label="(...)", fillcolor="#C0C0C0"] ;
18 -> 22 ;
23 [label="-0.0\n1\n[[20.81]\n[9.43]\n[10.57]\n[0.4]\n[0.41]]", fillcolor="#e58139"] ;
17 -> 23 ;
24 [label="Platform_X360 <= 0.5\n3.504\n6\n[[22.153]\n[8.972]\n[2.425]\n[8.515]\n[2.238]]", fillcolor="#e9965b"] ;
16 -> 24 ;
25 [label="Rank <= 18.5\n1.64\n5\n[[22.22]\n[7.772]\n[2.576]\n[9.23]\n[2.638]]", fillcolor="#e78b49"] ;
24 -> 25 ;
26 [label="(...)", fillcolor="#C0C0C0"] ;
25 -> 26 ;
33 [label="(...)", fillcolor="#C0C0C0"] ;
25 -> 33 ;
34 [label="0.0\n1\n[[21.82]\n[14.97]\n[1.67]\n[4.94]\n[0.24]]", fillcolor="#e58139"] ;
24 -> 34 ;
35 [label="Rank <= 63.5\n3.212\n100\n[[9.276]\n[4.321]\n[0.889]\n[2.912]\n[1.156]]", fillcolor="#e99558"] ;
1 -> 35 ;
36 [label="Rank <= 39.5\n2.526\n34\n[[12.763]\n[5.891]\n[1.312]\n[3.832]\n[1.73]]", fillcolor="#e89051"] ;
35 -> 36 ;
37 [label="Publisher_Nintendo <= 0.5\n1.927\n14\n[[14.739]\n[6.755]\n[1.29]\n[4.709]\n[1.985]]", fillcolor="#e78d4b"] ;
36 -> 37 ;
38 [label="Platform_X360 <= 0.5\n0.87\n9\n[[14.542]\n[7.604]\n[1.576]\n[4.922]\n[0.442]]", fillcolor="#e68641"] ;
37 -> 38 ;
39 [label="(...)", fillcolor="#C0C0C0"] ;
38 -> 39 ;
48 [label="(...)", fillcolor="#C0C0C0"] ;
38 -> 48 ;
55 [label="Genre_Role-Playing <= 0.5\n0.537\n5\n[[15.092]\n[5.226]\n[0.776]\n[4.326]\n[4.762]]", fillcolor="#e6843e"] ;
37 -> 55 ;
56 [label="(...)", fillcolor="#C0C0C0"] ;
55 -> 56 ;
57 [label="(...)", fillcolor="#C0C0C0"] ;
55 -> 57 ;
64 [label="Platform_PS2 <= 0.5\n1.64\n20\n[[11.38]\n[5.286]\n[1.328]\n[3.218]\n[1.551]]", fillcolor="#e78b49"] ;
36 -> 64 ;
65 [label="Genre_Simulation <= 0.5\n1.125\n19\n[[11.366]\n[5.406]\n[1.001]\n[3.387]\n[1.575]]", fillcolor="#e68844"] ;
64 -> 65 ;
66 [label="(...)", fillcolor="#C0C0C0"] ;
65 -> 66 ;
101 [label="(...)", fillcolor="#C0C0C0"] ;
65 -> 101 ;
102 [label="0.0\n1\n[[11.66]\n[3.01]\n[7.53]\n[0.01]\n[1.1]]", fillcolor="#e58139"] ;
64 -> 102 ;
103 [label="Publisher_Electronic Arts <= 0.5\n1.071\n66\n[[7.48]\n[3.512]\n[0.67]\n[2.438]\n[0.86]]", fillcolor="#e68843"] ;
35 -> 103 ;
104 [label="Rank <= 90.5\n0.883\n57\n[[7.49]\n[3.775]\n[0.58]\n[2.156]\n[0.98]]", fillcolor="#e68641"] ;
103 -> 104 ;
105 [label="Publisher_Nintendo <= 0.5\n1.207\n19\n[[8.773]\n[4.377]\n[0.522]\n[2.343]\n[1.532]]", fillcolor="#e78845"] ;
104 -> 105 ;
106 [label="(...)", fillcolor="#C0C0C0"] ;
105 -> 106 ;
125 [label="(...)", fillcolor="#C0C0C0"] ;
105 -> 125 ;
142 [label="Year <= 2004.5\n0.369\n38\n[[6.849]\n[3.473]\n[0.608]\n[2.063]\n[0.704]]", fillcolor="#e5833d"] ;
104 -> 142 ;
143 [label="(...)", fillcolor="#C0C0C0"] ;
142 -> 143 ;
168 [label="(...)", fillcolor="#C0C0C0"] ;
142 -> 168 ;
217 [label="Rank <= 88.5\n0.664\n9\n[[7.413]\n[1.847]\n[1.244]\n[4.226]\n[0.1]]", fillcolor="#e6853f"] ;
103 -> 217 ;
218 [label="Platform_PS3 <= 0.5\n0.13\n3\n[[8.28]\n[1.05]\n[1.327]\n[5.843]\n[0.063]]", fillcolor="#e5823a"] ;
217 -> 218 ;
219 [label="(...)", fillcolor="#C0C0C0"] ;
218 -> 219 ;
222 [label="(...)", fillcolor="#C0C0C0"] ;
218 -> 222 ;
223 [label="Rank <= 118.5\n0.329\n6\n[[6.98]\n[2.245]\n[1.203]\n[3.417]\n[0.118]]", fillcolor="#e5833c"] ;
217 -> 223 ;
224 [label="(...)", fillcolor="#C0C0C0"] ;
223 -> 224 ;
231 [label="(...)", fillcolor="#C0C0C0"] ;
223 -> 231 ;
234 [label="Rank <= 1479.5\n0.159\n13161\n[[0.434]\n[0.214]\n[0.039]\n[0.117]\n[0.064]]", fillcolor="#e5823b"] ;
0 -> 234 [labeldistance=2.5, labelangle=-45, headlabel="False"] ;
235 [label="Rank <= 490.5\n0.474\n1077\n[[2.416]\n[1.18]\n[0.23]\n[0.71]\n[0.297]]", fillcolor="#e6843e"] ;
234 -> 235 ;
236 [label="Rank <= 267.0\n0.533\n263\n[[4.042]\n[1.86]\n[0.394]\n[1.261]\n[0.527]]", fillcolor="#e6843e"] ;
235 -> 236 ;
237 [label="Genre_Role-Playing <= 0.5\n0.57\n92\n[[5.018]\n[2.339]\n[0.481]\n[1.457]\n[0.74]]", fillcolor="#e6843e"] ;
236 -> 237 ;
238 [label="Publisher_Nintendo <= 0.5\n0.36\n78\n[[4.991]\n[2.469]\n[0.5]\n[1.574]\n[0.447]]", fillcolor="#e5833c"] ;
237 -> 238 ;
239 [label="(...)", fillcolor="#C0C0C0"] ;
238 -> 239 ;
352 [label="(...)", fillcolor="#C0C0C0"] ;
238 -> 352 ;
393 [label="Platform_X360 <= 0.5\n0.878\n14\n[[5.169]\n[1.614]\n[0.376]\n[0.808]\n[2.372]]", fillcolor="#e68641"] ;
237 -> 393 ;
394 [label="(...)", fillcolor="#C0C0C0"] ;
393 -> 394 ;
417 [label="(...)", fillcolor="#C0C0C0"] ;
393 -> 417 ;
420 [label="Publisher_Enix Corporation <= 0.5\n0.303\n171\n[[3.517]\n[1.602]\n[0.346]\n[1.156]\n[0.412]]", fillcolor="#e5833c"] ;
236 -> 420 ;
421 [label="Platform_3DS <= 0.5\n0.262\n168\n[[3.519]\n[1.629]\n[0.353]\n[1.177]\n[0.36]]", fillcolor="#e5833c"] ;
420 -> 421 ;
422 [label="(...)", fillcolor="#C0C0C0"] ;
421 -> 422 ;
743 [label="(...)", fillcolor="#C0C0C0"] ;
421 -> 743 ;
756 [label="Rank <= 370.0\n0.043\n3\n[[3.393]\n[0.06]\n[0.003]\n[0.0]\n[3.33]]", fillcolor="#e58139"] ;
420 -> 756 ;
757 [label="(...)", fillcolor="#C0C0C0"] ;
756 -> 757 ;
758 [label="(...)", fillcolor="#C0C0C0"] ;
756 -> 758 ;
761 [label="Rank <= 844.5\n0.156\n814\n[[1.891]\n[0.96]\n[0.177]\n[0.532]\n[0.222]]", fillcolor="#e5823a"] ;
235 -> 761 ;
762 [label="Genre_Role-Playing <= 0.5\n0.191\n284\n[[2.406]\n[1.218]\n[0.23]\n[0.649]\n[0.31]]", fillcolor="#e5823b"] ;
761 -> 762 ;
763 [label="Publisher_Nintendo <= 0.5\n0.163\n256\n[[2.413]\n[1.258]\n[0.239]\n[0.692]\n[0.224]]", fillcolor="#e5823b"] ;
762 -> 763 ;
764 [label="(...)", fillcolor="#C0C0C0"] ;
763 -> 764 ;
1197 [label="(...)", fillcolor="#C0C0C0"] ;
763 -> 1197 ;
1274 [label="Year <= 2001.0\n0.248\n28\n[[2.342]\n[0.846]\n[0.146]\n[0.256]\n[1.093]]", fillcolor="#e5833b"] ;
762 -> 1274 ;
1275 [label="(...)", fillcolor="#C0C0C0"] ;
1274 -> 1275 ;
1290 [label="(...)", fillcolor="#C0C0C0"] ;
1274 -> 1290 ;
1329 [label="Rank <= 1140.5\n0.079\n530\n[[1.615]\n[0.822]\n[0.15]\n[0.469]\n[0.175]]", fillcolor="#e5813a"] ;
761 -> 1329 ;
1330 [label="Publisher_Nintendo <= 0.5\n0.076\n251\n[[1.788]\n[0.913]\n[0.155]\n[0.524]\n[0.195]]", fillcolor="#e5813a"] ;
1329 -> 1330 ;
1331 [label="(...)", fillcolor="#C0C0C0"] ;
1330 -> 1331 ;
1760 [label="(...)", fillcolor="#C0C0C0"] ;
1330 -> 1760 ;
1831 [label="Platform_NES <= 0.5\n0.067\n279\n[[1.459]\n[0.739]\n[0.144]\n[0.42]\n[0.156]]", fillcolor="#e5813a"] ;
1329 -> 1831 ;
1832 [label="(...)", fillcolor="#C0C0C0"] ;
1831 -> 1832 ;
2369 [label="(...)", fillcolor="#C0C0C0"] ;
1831 -> 2369 ;
2388 [label="Rank <= 4432.5\n0.028\n12084\n[[0.258]\n[0.128]\n[0.022]\n[0.064]\n[0.043]]", fillcolor="#e58139"] ;
234 -> 2388 ;
2389 [label="Rank <= 2532.5\n0.039\n2349\n[[0.757]\n[0.378]\n[0.071]\n[0.21]\n[0.098]]", fillcolor="#e58139"] ;
2388 -> 2389 ;
2390 [label="Rank <= 1988.5\n0.043\n844\n[[1.046]\n[0.514]\n[0.101]\n[0.302]\n[0.129]]", fillcolor="#e58139"] ;
2389 -> 2390 ;
2391 [label="Year <= 1995.5\n0.053\n414\n[[1.172]\n[0.549]\n[0.114]\n[0.339]\n[0.171]]", fillcolor="#e5813a"] ;
2390 -> 2391 ;
2392 [label="(...)", fillcolor="#C0C0C0"] ;
2391 -> 2392 ;
2467 [label="(...)", fillcolor="#C0C0C0"] ;
2391 -> 2467 ;
3192 [label="Year <= 1997.5\n0.025\n430\n[[0.924]\n[0.481]\n[0.088]\n[0.266]\n[0.089]]", fillcolor="#e58139"] ;
2390 -> 3192 ;
3193 [label="(...)", fillcolor="#C0C0C0"] ;
3192 -> 3193 ;
3276 [label="(...)", fillcolor="#C0C0C0"] ;
3192 -> 3276 ;
4037 [label="Rank <= 3342.5\n0.017\n1505\n[[0.595]\n[0.301]\n[0.054]\n[0.158]\n[0.081]]", fillcolor="#e58139"] ;
2389 -> 4037 ;
4038 [label="Genre_Role-Playing <= 0.5\n0.02\n634\n[[0.7]\n[0.346]\n[0.065]\n[0.194]\n[0.096]]", fillcolor="#e58139"] ;
4037 -> 4038 ;
4039 [label="(...)", fillcolor="#C0C0C0"] ;
4038 -> 4039 ;
5094 [label="(...)", fillcolor="#C0C0C0"] ;
4038 -> 5094 ;
5227 [label="Platform_SNES <= 0.5\n0.012\n871\n[[0.518]\n[0.268]\n[0.047]\n[0.132]\n[0.071]]", fillcolor="#e58139"] ;
4037 -> 5227 ;
5228 [label="(...)", fillcolor="#C0C0C0"] ;
5227 -> 5228 ;
6787 [label="(...)", fillcolor="#C0C0C0"] ;
5227 -> 6787 ;
6810 [label="Rank <= 8020.5\n0.005\n9735\n[[0.137]\n[0.068]\n[0.01]\n[0.029]\n[0.03]]", fillcolor="#e58139"] ;
2388 -> 6810 ;
6811 [label="Rank <= 5817.0\n0.006\n2857\n[[0.291]\n[0.148]\n[0.023]\n[0.064]\n[0.056]]", fillcolor="#e58139"] ;
6810 -> 6811 ;
6812 [label="Publisher_Namco Bandai Games <= 0.5\n0.007\n1130\n[[0.37]\n[0.19]\n[0.031]\n[0.085]\n[0.064]]", fillcolor="#e58139"] ;
6811 -> 6812 ;
6813 [label="(...)", fillcolor="#C0C0C0"] ;
6812 -> 6813 ;
8532 [label="(...)", fillcolor="#C0C0C0"] ;
6812 -> 8532 ;
8641 [label="Year <= 1997.5\n0.004\n1727\n[[0.239]\n[0.121]\n[0.017]\n[0.051]\n[0.051]]", fillcolor="#e58139"] ;
6811 -> 8641 ;
8642 [label="(...)", fillcolor="#C0C0C0"] ;
8641 -> 8642 ;
8777 [label="(...)", fillcolor="#C0C0C0"] ;
8641 -> 8777 ;
11184 [label="Rank <= 11253.0\n0.001\n6878\n[[0.074]\n[0.035]\n[0.004]\n[0.014]\n[0.019]]", fillcolor="#e58139"] ;
6810 -> 11184 ;
11185 [label="Rank <= 9660.5\n0.001\n2589\n[[0.128]\n[0.067]\n[0.009]\n[0.024]\n[0.028]]", fillcolor="#e58139"] ;
11184 -> 11185 ;
11186 [label="(...)", fillcolor="#C0C0C0"] ;
11185 -> 11186 ;
12815 [label="(...)", fillcolor="#C0C0C0"] ;
11185 -> 12815 ;
14286 [label="Rank <= 13455.5\n0.0\n4289\n[[0.041]\n[0.016]\n[0.002]\n[0.008]\n[0.014]]", fillcolor="#e58139"] ;
11184 -> 14286 ;
14287 [label="(...)", fillcolor="#C0C0C0"] ;
14286 -> 14287 ;
15840 [label="(...)", fillcolor="#C0C0C0"] ;
14286 -> 15840 ;
}